digraph Tree {
node [shape=box, style="filled, rounded", color="black", fontname="helvetica"] ;
edge [fontname="helvetica"] ;
0 [label="sepal length (cm) <= 5.45\ngini = 0.66\nsamples = 92\nvalue = [56, 46, 48]\nclass = setosa", fillcolor="#fdf5ef"] ;
1 [label="sepal width (cm) <= 2.8\ngini = 0.23\nsamples = 33\nvalue = [49, 5, 2]\nclass = setosa", fillcolor="#e99254"] ;
0 -> 1 [labeldistance=2.5, labelangle=45, headlabel="True"] ;
2 [label="petal length (cm) <= 4.2\ngini = 0.41\nsamples = 5\nvalue = [0, 5, 2]\nclass = versicolor", fillcolor="#88efb3"] ;
1 -> 2 ;
3 [label="gini = 0.0\nsamples = 4\nvalue = [0, 5, 0]\nclass = versicolor", fillcolor="#39e581"] ;
2 -> 3 ;
4 [label="gini = 0.0\nsamples = 1\nvalue = [0, 0, 2]\nclass = virginica", fillcolor="#8139e5"] ;
2 -> 4 ;
5 [label="gini = 0.0\nsamples = 28\nvalue = [49, 0, 0]\nclass = setosa", fillcolor="#e58139"] ;
1 -> 5 ;
6 [label="petal length (cm) <= 4.85\ngini = 0.56\nsamples = 59\nvalue = [7, 41, 46]\nclass = virginica", fillcolor="#f3ecfd"] ;
0 -> 6 [labeldistance=2.5, labelangle=-45, headlabel="False"] ;
7 [label="petal length (cm) <= 2.6\ngini = 0.3\nsamples = 29\nvalue = [7, 36, 1]\nclass = versicolor", fillcolor="#64eb9c"] ;
6 -> 7 ;
8 [label="gini = 0.0\nsamples = 5\nvalue = [7, 0, 0]\nclass = setosa", fillcolor="#e58139"] ;
7 -> 8 ;
9 [label="sepal length (cm) <= 6.15\ngini = 0.05\nsamples = 24\nvalue = [0, 36, 1]\nclass = versicolor", fillcolor="#3ee684"] ;
7 -> 9 ;
10 [label="gini = 0.0\nsamples = 14\nvalue = [0, 23, 0]\nclass = versicolor", fillcolor="#39e581"] ;
9 -> 10 ;
11 [label="sepal length (cm) <= 6.25\ngini = 0.13\nsamples = 10\nvalue = [0, 13, 1]\nclass = versicolor", fillcolor="#48e78b"] ;
9 -> 11 ;
12 [label="sepal width (cm) <= 2.5\ngini = 0.5\nsamples = 2\nvalue = [0, 1, 1]\nclass = versicolor", fillcolor="#ffffff"] ;
11 -> 12 ;
13 [label="gini = 0.0\nsamples = 1\nvalue = [0, 1, 0]\nclass = versicolor", fillcolor="#39e581"] ;
12 -> 13 ;
14 [label="gini = 0.0\nsamples = 1\nvalue = [0, 0, 1]\nclass = virginica", fillcolor="#8139e5"] ;
12 -> 14 ;
15 [label="gini = 0.0\nsamples = 8\nvalue = [0, 12, 0]\nclass = versicolor", fillcolor="#39e581"] ;
11 -> 15 ;
16 [label="petal width (cm) <= 1.75\ngini = 0.18\nsamples = 30\nvalue = [0, 5, 45]\nclass = virginica", fillcolor="#8f4fe8"] ;
6 -> 16 ;
17 [label="petal width (cm) <= 1.55\ngini = 0.5\nsamples = 6\nvalue = [0, 5, 5]\nclass = versicolor", fillcolor="#ffffff"] ;
16 -> 17 ;
18 [label="petal length (cm) <= 4.95\ngini = 0.28\nsamples = 4\nvalue = [0, 1, 5]\nclass = virginica", fillcolor="#9a61ea"] ;
17 -> 18 ;
19 [label="gini = 0.0\nsamples = 1\nvalue = [0, 1, 0]\nclass = versicolor", fillcolor="#39e581"] ;
18 -> 19 ;
20 [label="gini = 0.0\nsamples = 3\nvalue = [0, 0, 5]\nclass = virginica", fillcolor="#8139e5"] ;
18 -> 20 ;
21 [label="gini = 0.0\nsamples = 2\nvalue = [0, 4, 0]\nclass = versicolor", fillcolor="#39e581"] ;
17 -> 21 ;
22 [label="gini = 0.0\nsamples = 24\nvalue = [0, 0, 40]\nclass = virginica", fillcolor="#8139e5"] ;
16 -> 22 ;
}